# Input file: /exp/drumil/espnet/egs/tedlium2/asr1/first_pass/corrects/GaryFlake_2010
# Token count: 65
# Smoothing: Modified Kneser-Ney
\data\
ngram 1=16

\1-grams:
-1.7459664	<unk>
0	<s>
-0.78150487	</s>
-1.2018986	see
-1.2018986	data
-1.2018986	right
-1.2018986	web
-1.2018986	drill
-1.2018986	i'm
-1.2018986	page
-1.2018986	want
-1.2018986	wikipedia
-1.2018986	bit
-1.2018986	people
-1.2018986	there's
-1.2018986	we're

\end\
