# Input file: /exp/drumil/espnet/egs/tedlium2/asr1/first_pass/corrects/EricMead_2009P
# Token count: 85
# Smoothing: Modified Kneser-Ney
\data\
ngram 1=20

\1-grams:
-1.8559899	<unk>
0	<s>
-0.78017277	</s>
-1.3165421	i'm
-1.3165421	something
-1.3165421	going
-1.3165421	right
-1.3165421	that's
-1.3165421	trick
-1.3165421	know
-1.3165421	placebo
-1.3165421	go
-1.3165421	people
-1.3165421	see
-1.3165421	well
-1.3165421	goes
-1.3165421	let
-1.3165421	show
-1.3165421	thing
-1.3165421	capsule

\end\
