# Input file: /exp/drumil/espnet/egs/tedlium2/asr1/first_pass/corrects/RobertGupta_2010U
# Token count: 55
# Smoothing: Modified Kneser-Ney
\data\
ngram 1=14

\1-grams:
-1.6782148	<unk>
0	<s>
-0.7827309	</s>
-1.1307136	nathaniel
-1.1307136	violin
-1.1307136	angeles
-1.1307136	los
-1.1307136	playing
-1.1307136	started
-1.1307136	disney
-1.1307136	downtown
-1.1307136	juilliard
-1.1307136	row
-1.1307136	shape

\end\
